digraph Tree {
node [shape=box, style="filled", color="black", fontname="helvetica"] ;
edge [fontname="helvetica"] ;
0 [label="RefractoryPeriod <= 0.671\ngini = 0.811\nsamples = 1000\nvalue = [127, 229, 114, 106, 269, 155]\nclass = Cerebellum", fillcolor="#f8f5fe"] ;
1 [label="SynapticReleaseSiteCount <= 443.605\ngini = 0.597\nsamples = 202\nvalue = [21, 119, 6, 5, 41, 10]\nclass = Neocortex", fillcolor="#d0f29f"] ;
0 -> 1 [labeldistance=2.5, labelangle=45, headlabel="True"] ;
2 [label="ActionPotentialRate <= 145.748\ngini = 0.529\nsamples = 54\nvalue = [0.0, 23.0, 1.0, 0.0, 29.0, 1.0]\nclass = Cerebellum", fillcolor="#e7d9fa"] ;
1 -> 2 ;
3 [label="IonChannelDiversity <= 64.084\ngini = 0.127\nsamples = 30\nvalue = [0, 0, 1, 0, 28, 1]\nclass = Cerebellum", fillcolor="#8a47e7"] ;
2 -> 3 ;
4 [label="gini = 0.0\nsamples = 1\nvalue = [0, 0, 0, 0, 0, 1]\nclass = Hypothalamus", fillcolor="#e5399d"] ;
3 -> 4 ;
5 [label="NeurogenesisRate <= 90.221\ngini = 0.067\nsamples = 29\nvalue = [0, 0, 1, 0, 28, 0]\nclass = Cerebellum", fillcolor="#8640e6"] ;
3 -> 5 ;
6 [label="RestingMembranePotential <= -70.325\ngini = 0.5\nsamples = 2\nvalue = [0, 0, 1, 0, 1, 0]\nclass = Amygdala", fillcolor="#ffffff"] ;
5 -> 6 ;
7 [label="gini = 0.0\nsamples = 1\nvalue = [0, 0, 1, 0, 0, 0]\nclass = Amygdala", fillcolor="#39e581"] ;
6 -> 7 ;
8 [label="gini = 0.0\nsamples = 1\nvalue = [0, 0, 0, 0, 1, 0]\nclass = Cerebellum", fillcolor="#8139e5"] ;
6 -> 8 ;
9 [label="gini = 0.0\nsamples = 27\nvalue = [0, 0, 0, 0, 27, 0]\nclass = Cerebellum", fillcolor="#8139e5"] ;
5 -> 9 ;
10 [label="NeuralSynchronizationFrequency <= 67.925\ngini = 0.08\nsamples = 24\nvalue = [0, 23, 0, 0, 1, 0]\nclass = Neocortex", fillcolor="#a1e642"] ;
2 -> 10 ;
11 [label="gini = 0.0\nsamples = 23\nvalue = [0, 23, 0, 0, 0, 0]\nclass = Neocortex", fillcolor="#9de539"] ;
10 -> 11 ;
12 [label="gini = 0.0\nsamples = 1\nvalue = [0, 0, 0, 0, 1, 0]\nclass = Cerebellum", fillcolor="#8139e5"] ;
10 -> 12 ;
13 [label="ExcitatoryPostsynapticPotential <= 2.808\ngini = 0.547\nsamples = 148\nvalue = [21, 96, 5, 5, 12, 9]\nclass = Neocortex", fillcolor="#c5f08a"] ;
1 -> 13 ;
14 [label="BloodVesselProximity <= 28.511\ngini = 0.801\nsamples = 29\nvalue = [2, 4, 3, 5, 7, 8]\nclass = Hypothalamus", fillcolor="#fef6fb"] ;
13 -> 14 ;
15 [label="NeurotransmitterReleaseProbability <= 0.607\ngini = 0.406\nsamples = 8\nvalue = [1, 0, 1, 0, 0, 6]\nclass = Hypothalamus", fillcolor="#ec72b9"] ;
14 -> 15 ;
16 [label="gini = 0.0\nsamples = 6\nvalue = [0, 0, 0, 0, 0, 6]\nclass = Hypothalamus", fillcolor="#e5399d"] ;
15 -> 16 ;
17 [label="NeuronFiberDensity <= 1.389\ngini = 0.5\nsamples = 2\nvalue = [1, 0, 1, 0, 0, 0]\nclass = Hippocampus", fillcolor="#ffffff"] ;
15 -> 17 ;
18 [label="gini = 0.0\nsamples = 1\nvalue = [0, 0, 1, 0, 0, 0]\nclass = Amygdala", fillcolor="#39e581"] ;
17 -> 18 ;
19 [label="gini = 0.0\nsamples = 1\nvalue = [1, 0, 0, 0, 0, 0]\nclass = Hippocampus", fillcolor="#e58139"] ;
17 -> 19 ;
20 [label="SynapticDensity <= 7.623\ngini = 0.776\nsamples = 21\nvalue = [1, 4, 2, 5, 7, 2]\nclass = Cerebellum", fillcolor="#efe6fc"] ;
14 -> 20 ;
21 [label="InterspikeInterval <= 757.481\ngini = 0.711\nsamples = 16\nvalue = [1, 0, 2, 4, 7, 2]\nclass = Cerebellum", fillcolor="#e0cef8"] ;
20 -> 21 ;
22 [label="IonChannelDiversity <= 68.5\ngini = 0.76\nsamples = 11\nvalue = [1, 0, 2, 4, 2, 2]\nclass = Thalamus", fillcolor="#d3e9f9"] ;
21 -> 22 ;
23 [label="gini = 0.0\nsamples = 2\nvalue = [0, 0, 2, 0, 0, 0]\nclass = Amygdala", fillcolor="#39e581"] ;
22 -> 23 ;
24 [label="BloodVesselProximity <= 94.288\ngini = 0.691\nsamples = 9\nvalue = [1, 0, 0, 4, 2, 2]\nclass = Thalamus", fillcolor="#c6e3f8"] ;
22 -> 24 ;
25 [label="RestingMembranePotential <= -68.499\ngini = 0.571\nsamples = 7\nvalue = [1, 0, 0, 4, 0, 2]\nclass = Thalamus", fillcolor="#b0d8f5"] ;
24 -> 25 ;
26 [label="RestingMembranePotential <= -70.425\ngini = 0.444\nsamples = 3\nvalue = [1, 0, 0, 0, 0, 2]\nclass = Hypothalamus", fillcolor="#f29cce"] ;
25 -> 26 ;
27 [label="gini = 0.0\nsamples = 2\nvalue = [0, 0, 0, 0, 0, 2]\nclass = Hypothalamus", fillcolor="#e5399d"] ;
26 -> 27 ;
28 [label="gini = 0.0\nsamples = 1\nvalue = [1, 0, 0, 0, 0, 0]\nclass = Hippocampus", fillcolor="#e58139"] ;
26 -> 28 ;
29 [label="gini = 0.0\nsamples = 4\nvalue = [0, 0, 0, 4, 0, 0]\nclass = Thalamus", fillcolor="#399de5"] ;
25 -> 29 ;
30 [label="gini = 0.0\nsamples = 2\nvalue = [0, 0, 0, 0, 2, 0]\nclass = Cerebellum", fillcolor="#8139e5"] ;
24 -> 30 ;
31 [label="gini = 0.0\nsamples = 5\nvalue = [0, 0, 0, 0, 5, 0]\nclass = Cerebellum", fillcolor="#8139e5"] ;
21 -> 31 ;
32 [label="AxonLength <= 85.876\ngini = 0.32\nsamples = 5\nvalue = [0, 4, 0, 1, 0, 0]\nclass = Neocortex", fillcolor="#b6ec6a"] ;
20 -> 32 ;
33 [label="gini = 0.0\nsamples = 1\nvalue = [0, 0, 0, 1, 0, 0]\nclass = Thalamus", fillcolor="#399de5"] ;
32 -> 33 ;
34 [label="gini = 0.0\nsamples = 4\nvalue = [0, 4, 0, 0, 0, 0]\nclass = Neocortex", fillcolor="#9de539"] ;
32 -> 34 ;
35 [label="SynapticReleaseSiteCount <= 1830.495\ngini = 0.375\nsamples = 119\nvalue = [19, 92, 2, 0, 5, 1]\nclass = Neocortex", fillcolor="#b7ec6e"] ;
13 -> 35 ;
36 [label="MembraneResistance <= 951.163\ngini = 0.101\nsamples = 57\nvalue = [1, 54, 2, 0, 0, 0]\nclass = Neocortex", fillcolor="#a2e644"] ;
35 -> 36 ;
37 [label="ExcitatoryPostsynapticPotential <= 4.904\ngini = 0.07\nsamples = 56\nvalue = [1, 54, 1, 0, 0, 0]\nclass = Neocortex", fillcolor="#a1e640"] ;
36 -> 37 ;
38 [label="NeurotransmitterReleaseProbability <= 0.896\ngini = 0.036\nsamples = 55\nvalue = [1, 54, 0, 0, 0, 0]\nclass = Neocortex", fillcolor="#9fe53d"] ;
37 -> 38 ;
39 [label="gini = 0.0\nsamples = 52\nvalue = [0, 52, 0, 0, 0, 0]\nclass = Neocortex", fillcolor="#9de539"] ;
38 -> 39 ;
40 [label="NeuralSynchronizationFrequency <= 59.367\ngini = 0.444\nsamples = 3\nvalue = [1, 2, 0, 0, 0, 0]\nclass = Neocortex", fillcolor="#cef29c"] ;
38 -> 40 ;
41 [label="gini = 0.0\nsamples = 2\nvalue = [0, 2, 0, 0, 0, 0]\nclass = Neocortex", fillcolor="#9de539"] ;
40 -> 41 ;
42 [label="gini = 0.0\nsamples = 1\nvalue = [1, 0, 0, 0, 0, 0]\nclass = Hippocampus", fillcolor="#e58139"] ;
40 -> 42 ;
43 [label="gini = 0.0\nsamples = 1\nvalue = [0, 0, 1, 0, 0, 0]\nclass = Amygdala", fillcolor="#39e581"] ;
37 -> 43 ;
44 [label="gini = 0.0\nsamples = 1\nvalue = [0, 0, 1, 0, 0, 0]\nclass = Amygdala", fillcolor="#39e581"] ;
36 -> 44 ;
45 [label="BloodVesselProximity <= 31.002\ngini = 0.533\nsamples = 62\nvalue = [18, 38, 0, 0, 5, 1]\nclass = Neocortex", fillcolor="#d2f3a5"] ;
35 -> 45 ;
46 [label="IonChannelDiversity <= 75.425\ngini = 0.219\nsamples = 42\nvalue = [2, 37, 0, 0, 2, 1]\nclass = Neocortex", fillcolor="#a9e852"] ;
45 -> 46 ;
47 [label="NeurotransmitterReleaseProbability <= 0.542\ngini = 0.444\nsamples = 3\nvalue = [2, 0, 0, 0, 1, 0]\nclass = Hippocampus", fillcolor="#f2c09c"] ;
46 -> 47 ;
48 [label="gini = 0.0\nsamples = 1\nvalue = [0, 0, 0, 0, 1, 0]\nclass = Cerebellum", fillcolor="#8139e5"] ;
47 -> 48 ;
49 [label="gini = 0.0\nsamples = 2\nvalue = [2, 0, 0, 0, 0, 0]\nclass = Hippocampus", fillcolor="#e58139"] ;
47 -> 49 ;
50 [label="GeneExpressionProfile <= 0.996\ngini = 0.099\nsamples = 39\nvalue = [0, 37, 0, 0, 1, 1]\nclass = Neocortex", fillcolor="#a2e643"] ;
46 -> 50 ;
51 [label="AxonLength <= 948.513\ngini = 0.051\nsamples = 38\nvalue = [0, 37, 0, 0, 1, 0]\nclass = Neocortex", fillcolor="#a0e63e"] ;
50 -> 51 ;
52 [label="gini = 0.0\nsamples = 36\nvalue = [0, 36, 0, 0, 0, 0]\nclass = Neocortex", fillcolor="#9de539"] ;
51 -> 52 ;
53 [label="GABAReuptakeTime <= 4.954\ngini = 0.5\nsamples = 2\nvalue = [0, 1, 0, 0, 1, 0]\nclass = Neocortex", fillcolor="#ffffff"] ;
51 -> 53 ;
54 [label="gini = 0.0\nsamples = 1\nvalue = [0, 1, 0, 0, 0, 0]\nclass = Neocortex", fillcolor="#9de539"] ;
53 -> 54 ;
55 [label="gini = 0.0\nsamples = 1\nvalue = [0, 0, 0, 0, 1, 0]\nclass = Cerebellum", fillcolor="#8139e5"] ;
53 -> 55 ;
56 [label="gini = 0.0\nsamples = 1\nvalue = [0, 0, 0, 0, 0, 1]\nclass = Hypothalamus", fillcolor="#e5399d"] ;
50 -> 56 ;
57 [label="IonChannelDiversity <= 60.199\ngini = 0.335\nsamples = 20\nvalue = [16, 1, 0, 0, 3, 0]\nclass = Hippocampus", fillcolor="#eb9f68"] ;
45 -> 57 ;
58 [label="RestingMembranePotential <= -74.574\ngini = 0.444\nsamples = 3\nvalue = [0, 1, 0, 0, 2, 0]\nclass = Cerebellum", fillcolor="#c09cf2"] ;
57 -> 58 ;
59 [label="gini = 0.0\nsamples = 1\nvalue = [0, 1, 0, 0, 0, 0]\nclass = Neocortex", fillcolor="#9de539"] ;
58 -> 59 ;
60 [label="gini = 0.0\nsamples = 2\nvalue = [0, 0, 0, 0, 2, 0]\nclass = Cerebellum", fillcolor="#8139e5"] ;
58 -> 60 ;
61 [label="ExcitatoryPostsynapticPotential <= 4.933\ngini = 0.111\nsamples = 17\nvalue = [16, 0, 0, 0, 1, 0]\nclass = Hippocampus", fillcolor="#e78945"] ;
57 -> 61 ;
62 [label="gini = 0.0\nsamples = 16\nvalue = [16, 0, 0, 0, 0, 0]\nclass = Hippocampus", fillcolor="#e58139"] ;
61 -> 62 ;
63 [label="gini = 0.0\nsamples = 1\nvalue = [0, 0, 0, 0, 1, 0]\nclass = Cerebellum", fillcolor="#8139e5"] ;
61 -> 63 ;
64 [label="DendriticTreeComplexity <= 1.024\ngini = 0.814\nsamples = 798\nvalue = [106, 110, 108, 101, 228, 145]\nclass = Cerebellum", fillcolor="#efe6fc"] ;
0 -> 64 [labeldistance=2.5, labelangle=-45, headlabel="False"] ;
65 [label="InterspikeInterval <= 797.717\ngini = 0.56\nsamples = 55\nvalue = [29.0, 1.0, 1.0, 0.0, 2.0, 22.0]\nclass = Hippocampus", fillcolor="#f9e4d5"] ;
64 -> 65 ;
66 [label="NeuronFiringThreshold <= -64.666\ngini = 0.229\nsamples = 24\nvalue = [1, 1, 1, 0, 0, 21]\nclass = Hypothalamus", fillcolor="#e853aa"] ;
65 -> 66 ;
67 [label="IonChannelDiversity <= 42.555\ngini = 0.087\nsamples = 22\nvalue = [1, 0, 0, 0, 0, 21]\nclass = Hypothalamus", fillcolor="#e642a2"] ;
66 -> 67 ;
68 [label="gini = 0.0\nsamples = 1\nvalue = [1, 0, 0, 0, 0, 0]\nclass = Hippocampus", fillcolor="#e58139"] ;
67 -> 68 ;
69 [label="gini = 0.0\nsamples = 21\nvalue = [0, 0, 0, 0, 0, 21]\nclass = Hypothalamus", fillcolor="#e5399d"] ;
67 -> 69 ;
70 [label="NeuronFiberDensity <= 1.586\ngini = 0.5\nsamples = 2\nvalue = [0, 1, 1, 0, 0, 0]\nclass = Neocortex", fillcolor="#ffffff"] ;
66 -> 70 ;
71 [label="gini = 0.0\nsamples = 1\nvalue = [0, 1, 0, 0, 0, 0]\nclass = Neocortex", fillcolor="#9de539"] ;
70 -> 71 ;
72 [label="gini = 0.0\nsamples = 1\nvalue = [0, 0, 1, 0, 0, 0]\nclass = Amygdala", fillcolor="#39e581"] ;
70 -> 72 ;
73 [label="RefractoryPeriod <= 4.901\ngini = 0.179\nsamples = 31\nvalue = [28, 0, 0, 0, 2, 1]\nclass = Hippocampus", fillcolor="#e88e4d"] ;
65 -> 73 ;
74 [label="ExcitatoryPostsynapticPotential <= 2.738\ngini = 0.067\nsamples = 29\nvalue = [28, 0, 0, 0, 1, 0]\nclass = Hippocampus", fillcolor="#e68640"] ;
73 -> 74 ;
75 [label="gini = 0.0\nsamples = 28\nvalue = [28, 0, 0, 0, 0, 0]\nclass = Hippocampus", fillcolor="#e58139"] ;
74 -> 75 ;
76 [label="gini = 0.0\nsamples = 1\nvalue = [0, 0, 0, 0, 1, 0]\nclass = Cerebellum", fillcolor="#8139e5"] ;
74 -> 76 ;
77 [label="NeurotransmitterReleaseProbability <= 0.399\ngini = 0.5\nsamples = 2\nvalue = [0, 0, 0, 0, 1, 1]\nclass = Cerebellum", fillcolor="#ffffff"] ;
73 -> 77 ;
78 [label="gini = 0.0\nsamples = 1\nvalue = [0, 0, 0, 0, 1, 0]\nclass = Cerebellum", fillcolor="#8139e5"] ;
77 -> 78 ;
79 [label="gini = 0.0\nsamples = 1\nvalue = [0, 0, 0, 0, 0, 1]\nclass = Hypothalamus", fillcolor="#e5399d"] ;
77 -> 79 ;
80 [label="IonChannelDiversity <= 73.866\ngini = 0.809\nsamples = 743\nvalue = [77.0, 109.0, 107.0, 101.0, 226.0, 123.0]\nclass = Cerebellum", fillcolor="#eadefb"] ;
64 -> 80 ;
81 [label="MembraneResistance <= 142.26\ngini = 0.796\nsamples = 362\nvalue = [64, 30, 76, 19, 104, 69]\nclass = Cerebellum", fillcolor="#f3ecfc"] ;
80 -> 81 ;
82 [label="BloodVesselProximity <= 54.411\ngini = 0.441\nsamples = 33\nvalue = [4, 0, 24, 1, 4, 0]\nclass = Amygdala", fillcolor="#76eda8"] ;
81 -> 82 ;
83 [label="GeneExpressionProfile <= 0.314\ngini = 0.095\nsamples = 20\nvalue = [0, 0, 19, 1, 0, 0]\nclass = Amygdala", fillcolor="#43e688"] ;
82 -> 83 ;
84 [label="gini = 0.0\nsamples = 1\nvalue = [0, 0, 0, 1, 0, 0]\nclass = Thalamus", fillcolor="#399de5"] ;
83 -> 84 ;
85 [label="gini = 0.0\nsamples = 19\nvalue = [0, 0, 19, 0, 0, 0]\nclass = Amygdala", fillcolor="#39e581"] ;
83 -> 85 ;
86 [label="AxonalSignalSpeed <= 80.485\ngini = 0.663\nsamples = 13\nvalue = [4, 0, 5, 0, 4, 0]\nclass = Amygdala", fillcolor="#e9fcf1"] ;
82 -> 86 ;
87 [label="GABAReuptakeTime <= 3.606\ngini = 0.494\nsamples = 9\nvalue = [4, 0, 5, 0, 0, 0]\nclass = Amygdala", fillcolor="#d7fae6"] ;
86 -> 87 ;
88 [label="gini = 0.0\nsamples = 3\nvalue = [0, 0, 3, 0, 0, 0]\nclass = Amygdala", fillcolor="#39e581"] ;
87 -> 88 ;
89 [label="RestingMembranePotential <= -65.131\ngini = 0.444\nsamples = 6\nvalue = [4, 0, 2, 0, 0, 0]\nclass = Hippocampus", fillcolor="#f2c09c"] ;
87 -> 89 ;
90 [label="gini = 0.0\nsamples = 3\nvalue = [3, 0, 0, 0, 0, 0]\nclass = Hippocampus", fillcolor="#e58139"] ;
89 -> 90 ;
91 [label="NeuralSynchronizationFrequency <= 72.434\ngini = 0.444\nsamples = 3\nvalue = [1, 0, 2, 0, 0, 0]\nclass = Amygdala", fillcolor="#9cf2c0"] ;
89 -> 91 ;
92 [label="gini = 0.0\nsamples = 2\nvalue = [0, 0, 2, 0, 0, 0]\nclass = Amygdala", fillcolor="#39e581"] ;
91 -> 92 ;
93 [label="gini = 0.0\nsamples = 1\nvalue = [1, 0, 0, 0, 0, 0]\nclass = Hippocampus", fillcolor="#e58139"] ;
91 -> 93 ;
94 [label="gini = 0.0\nsamples = 4\nvalue = [0, 0, 0, 0, 4, 0]\nclass = Cerebellum", fillcolor="#8139e5"] ;
86 -> 94 ;
95 [label="GeneExpressionProfile <= 0.518\ngini = 0.794\nsamples = 329\nvalue = [60, 30, 52, 18, 100, 69]\nclass = Cerebellum", fillcolor="#f0e7fc"] ;
81 -> 95 ;
96 [label="ExcitatoryPostsynapticPotential <= 2.167\ngini = 0.724\nsamples = 149\nvalue = [21, 9, 48, 2, 56, 13]\nclass = Cerebellum", fillcolor="#f5effd"] ;
95 -> 96 ;
97 [label="NeuronFiberDensity <= 0.306\ngini = 0.741\nsamples = 117\nvalue = [20, 9, 47, 2, 26, 13]\nclass = Amygdala", fillcolor="#d1f9e2"] ;
96 -> 97 ;
98 [label="GeneExpressionProfile <= 0.376\ngini = 0.095\nsamples = 20\nvalue = [0, 0, 1, 0, 19, 0]\nclass = Cerebellum", fillcolor="#8843e6"] ;
97 -> 98 ;
99 [label="gini = 0.0\nsamples = 19\nvalue = [0, 0, 0, 0, 19, 0]\nclass = Cerebellum", fillcolor="#8139e5"] ;
98 -> 99 ;
100 [label="gini = 0.0\nsamples = 1\nvalue = [0, 0, 1, 0, 0, 0]\nclass = Amygdala", fillcolor="#39e581"] ;
98 -> 100 ;
101 [label="BloodVesselProximity <= 82.849\ngini = 0.7\nsamples = 97\nvalue = [20.0, 9.0, 46.0, 2.0, 7.0, 13.0]\nclass = Amygdala", fillcolor="#bcf6d4"] ;
97 -> 101 ;
102 [label="DendriticTreeComplexity <= 9.084\ngini = 0.333\nsamples = 55\nvalue = [1, 1, 44, 0, 0, 9]\nclass = Amygdala", fillcolor="#68eb9f"] ;
101 -> 102 ;
103 [label="GABAReuptakeTime <= 0.642\ngini = 0.086\nsamples = 45\nvalue = [1, 1, 43, 0, 0, 0]\nclass = Amygdala", fillcolor="#42e687"] ;
102 -> 103 ;
104 [label="gini = 0.0\nsamples = 1\nvalue = [1, 0, 0, 0, 0, 0]\nclass = Hippocampus", fillcolor="#e58139"] ;
103 -> 104 ;
105 [label="gini = 0.044\nsamples = 44\nvalue = [0, 1, 43, 0, 0, 0]\nclass = Amygdala", fillcolor="#3ee684"] ;
103 -> 105 ;
106 [label="NeuralSynchronizationFrequency <= 15.132\ngini = 0.18\nsamples = 10\nvalue = [0, 0, 1, 0, 0, 9]\nclass = Hypothalamus", fillcolor="#e84fa8"] ;
102 -> 106 ;
107 [label="gini = 0.0\nsamples = 1\nvalue = [0, 0, 1, 0, 0, 0]\nclass = Amygdala", fillcolor="#39e581"] ;
106 -> 107 ;
108 [label="gini = 0.0\nsamples = 9\nvalue = [0, 0, 0, 0, 0, 9]\nclass = Hypothalamus", fillcolor="#e5399d"] ;
106 -> 108 ;
109 [label="GlutamateReuptakeTime <= 3.243\ngini = 0.718\nsamples = 42\nvalue = [19, 8, 2, 2, 7, 4]\nclass = Hippocampus", fillcolor="#f7d6bf"] ;
101 -> 109 ;
110 [label="DendriticTreeComplexity <= 9.172\ngini = 0.693\nsamples = 19\nvalue = [0, 8, 1, 1, 6, 3]\nclass = Neocortex", fillcolor="#f0fbe1"] ;
109 -> 110 ;
111 [label="gini = 0.602\nsamples = 16\nvalue = [0, 8, 1, 1, 6, 0]\nclass = Neocortex", fillcolor="#ebfad7"] ;
110 -> 111 ;
112 [label="gini = 0.0\nsamples = 3\nvalue = [0, 0, 0, 0, 0, 3]\nclass = Hypothalamus", fillcolor="#e5399d"] ;
110 -> 112 ;
113 [label="GeneExpressionProfile <= 0.36\ngini = 0.31\nsamples = 23\nvalue = [19, 0, 1, 1, 1, 1]\nclass = Hippocampus", fillcolor="#ea985d"] ;
109 -> 113 ;
114 [label="gini = 0.177\nsamples = 21\nvalue = [19, 0, 0, 1, 1, 0]\nclass = Hippocampus", fillcolor="#e88e4d"] ;
113 -> 114 ;
115 [label="gini = 0.5\nsamples = 2\nvalue = [0, 0, 1, 0, 0, 1]\nclass = Amygdala", fillcolor="#ffffff"] ;
113 -> 115 ;
116 [label="InhibitoryPostsynapticPotential <= -61.279\ngini = 0.119\nsamples = 32\nvalue = [1, 0, 1, 0, 30, 0]\nclass = Cerebellum", fillcolor="#8946e7"] ;
96 -> 116 ;
117 [label="gini = 0.0\nsamples = 30\nvalue = [0, 0, 0, 0, 30, 0]\nclass = Cerebellum", fillcolor="#8139e5"] ;
116 -> 117 ;
118 [label="GeneExpressionProfile <= 0.219\ngini = 0.5\nsamples = 2\nvalue = [1, 0, 1, 0, 0, 0]\nclass = Hippocampus", fillcolor="#ffffff"] ;
116 -> 118 ;
119 [label="gini = 0.0\nsamples = 1\nvalue = [1, 0, 0, 0, 0, 0]\nclass = Hippocampus", fillcolor="#e58139"] ;
118 -> 119 ;
120 [label="gini = 0.0\nsamples = 1\nvalue = [0, 0, 1, 0, 0, 0]\nclass = Amygdala", fillcolor="#39e581"] ;
118 -> 120 ;
121 [label="GeneExpressionProfile <= 0.58\ngini = 0.775\nsamples = 180\nvalue = [39, 21, 4, 16, 44, 56]\nclass = Hypothalamus", fillcolor="#fdeef6"] ;
95 -> 121 ;
122 [label="ExcitatoryPostsynapticPotential <= 2.243\ngini = 0.285\nsamples = 37\nvalue = [1, 0, 1, 0, 4, 31]\nclass = Hypothalamus", fillcolor="#ea5daf"] ;
121 -> 122 ;
123 [label="DendriticTreeComplexity <= 1.438\ngini = 0.061\nsamples = 32\nvalue = [0, 0, 1, 0, 0, 31]\nclass = Hypothalamus", fillcolor="#e63fa0"] ;
122 -> 123 ;
124 [label="gini = 0.0\nsamples = 1\nvalue = [0, 0, 1, 0, 0, 0]\nclass = Amygdala", fillcolor="#39e581"] ;
123 -> 124 ;
125 [label="gini = 0.0\nsamples = 31\nvalue = [0, 0, 0, 0, 0, 31]\nclass = Hypothalamus", fillcolor="#e5399d"] ;
123 -> 125 ;
126 [label="AxonalSignalSpeed <= 66.793\ngini = 0.32\nsamples = 5\nvalue = [1, 0, 0, 0, 4, 0]\nclass = Cerebellum", fillcolor="#a06aec"] ;
122 -> 126 ;
127 [label="gini = 0.0\nsamples = 1\nvalue = [1, 0, 0, 0, 0, 0]\nclass = Hippocampus", fillcolor="#e58139"] ;
126 -> 127 ;
128 [label="gini = 0.0\nsamples = 4\nvalue = [0, 0, 0, 0, 4, 0]\nclass = Cerebellum", fillcolor="#8139e5"] ;
126 -> 128 ;
129 [label="SynapticReleaseSiteCount <= 3764.238\ngini = 0.786\nsamples = 143\nvalue = [38, 21, 3, 16, 40, 25]\nclass = Cerebellum", fillcolor="#fdfbff"] ;
121 -> 129 ;
130 [label="CorticalLayerThickness <= 0.839\ngini = 0.677\nsamples = 53\nvalue = [8, 3, 1, 16, 1, 24]\nclass = Hypothalamus", fillcolor="#f9d4ea"] ;
129 -> 130 ;
131 [label="NeuronFiberDensity <= 0.892\ngini = 0.198\nsamples = 9\nvalue = [8, 0, 0, 1, 0, 0]\nclass = Hippocampus", fillcolor="#e89152"] ;
130 -> 131 ;
132 [label="gini = 0.0\nsamples = 1\nvalue = [0, 0, 0, 1, 0, 0]\nclass = Thalamus", fillcolor="#399de5"] ;
131 -> 132 ;
133 [label="gini = 0.0\nsamples = 8\nvalue = [8, 0, 0, 0, 0, 0]\nclass = Hippocampus", fillcolor="#e58139"] ;
131 -> 133 ;
134 [label="SomaDiameter <= 48.678\ngini = 0.581\nsamples = 44\nvalue = [0.0, 3.0, 1.0, 15.0, 1.0, 24.0]\nclass = Hypothalamus", fillcolor="#f7c2e1"] ;
130 -> 134 ;
135 [label="InterspikeInterval <= 389.232\ngini = 0.617\nsamples = 28\nvalue = [0, 3, 1, 15, 1, 8]\nclass = Thalamus", fillcolor="#baddf6"] ;
134 -> 135 ;
136 [label="gini = 0.582\nsamples = 14\nvalue = [0, 1, 1, 4, 0, 8]\nclass = Hypothalamus", fillcolor="#f5b0d8"] ;
135 -> 136 ;
137 [label="gini = 0.357\nsamples = 14\nvalue = [0, 2, 0, 11, 1, 0]\nclass = Thalamus", fillcolor="#6bb6ec"] ;
135 -> 137 ;
138 [label="gini = 0.0\nsamples = 16\nvalue = [0, 0, 0, 0, 0, 16]\nclass = Hypothalamus", fillcolor="#e5399d"] ;
134 -> 138 ;
139 [label="GeneExpressionProfile <= 0.803\ngini = 0.66\nsamples = 90\nvalue = [30, 18, 2, 0, 39, 1]\nclass = Cerebellum", fillcolor="#ece1fb"] ;
129 -> 139 ;
140 [label="CorticalLayerThickness <= 0.717\ngini = 0.533\nsamples = 54\nvalue = [6, 13, 1, 0, 34, 0]\nclass = Cerebellum", fillcolor="#be9af2"] ;
139 -> 140 ;
141 [label="gini = 0.0\nsamples = 5\nvalue = [5, 0, 0, 0, 0, 0]\nclass = Hippocampus", fillcolor="#e58139"] ;
140 -> 141 ;
142 [label="InhibitoryPostsynapticPotential <= -68.329\ngini = 0.447\nsamples = 49\nvalue = [1.0, 13.0, 1.0, 0.0, 34.0, 0.0]\nclass = Cerebellum", fillcolor="#b68cf0"] ;
140 -> 142 ;
143 [label="gini = 0.105\nsamples = 18\nvalue = [0, 1, 0, 0, 17, 0]\nclass = Cerebellum", fillcolor="#8845e7"] ;
142 -> 143 ;
144 [label="gini = 0.547\nsamples = 31\nvalue = [1, 12, 1, 0, 17, 0]\nclass = Cerebellum", fillcolor="#decbf8"] ;
142 -> 144 ;
145 [label="InhibitoryPostsynapticPotential <= -70.693\ngini = 0.515\nsamples = 36\nvalue = [24, 5, 1, 0, 5, 1]\nclass = Hippocampus", fillcolor="#efb286"] ;
139 -> 145 ;
146 [label="DendriticTreeComplexity <= 1.69\ngini = 0.531\nsamples = 8\nvalue = [2, 1, 0, 0, 5, 0]\nclass = Cerebellum", fillcolor="#c09cf2"] ;
145 -> 146 ;
147 [label="gini = 0.0\nsamples = 2\nvalue = [2, 0, 0, 0, 0, 0]\nclass = Hippocampus", fillcolor="#e58139"] ;
146 -> 147 ;
148 [label="gini = 0.278\nsamples = 6\nvalue = [0, 1, 0, 0, 5, 0]\nclass = Cerebellum", fillcolor="#9a61ea"] ;
146 -> 148 ;
149 [label="GeneExpressionProfile <= 0.947\ngini = 0.36\nsamples = 28\nvalue = [22, 4, 1, 0, 0, 1]\nclass = Hippocampus", fillcolor="#eca06b"] ;
145 -> 149 ;
150 [label="gini = 0.229\nsamples = 24\nvalue = [21, 1, 1, 0, 0, 1]\nclass = Hippocampus", fillcolor="#e89153"] ;
149 -> 150 ;
151 [label="gini = 0.375\nsamples = 4\nvalue = [1, 3, 0, 0, 0, 0]\nclass = Neocortex", fillcolor="#beee7b"] ;
149 -> 151 ;
152 [label="ExcitatoryPostsynapticPotential <= 2.836\ngini = 0.78\nsamples = 381\nvalue = [13.0, 79.0, 31.0, 82.0, 122.0, 54.0]\nclass = Cerebellum", fillcolor="#eee5fc"] ;
80 -> 152 ;
153 [label="NeuronFiringThreshold <= -67.83\ngini = 0.774\nsamples = 344\nvalue = [11, 78, 30, 53, 118, 54]\nclass = Cerebellum", fillcolor="#ece1fb"] ;
152 -> 153 ;
154 [label="SynapticReleaseSiteCount <= 2005.949\ngini = 0.659\nsamples = 69\nvalue = [2, 28, 1, 5, 5, 28]\nclass = Neocortex", fillcolor="#ffffff"] ;
153 -> 154 ;
155 [label="DendriticTreeComplexity <= 2.507\ngini = 0.281\nsamples = 32\nvalue = [1, 1, 1, 0, 2, 27]\nclass = Hypothalamus", fillcolor="#e95aad"] ;
154 -> 155 ;
156 [label="NeuralSynchronizationFrequency <= 55.817\ngini = 0.444\nsamples = 3\nvalue = [0, 0, 0, 0, 2, 1]\nclass = Cerebellum", fillcolor="#c09cf2"] ;
155 -> 156 ;
157 [label="gini = 0.0\nsamples = 1\nvalue = [0, 0, 0, 0, 0, 1]\nclass = Hypothalamus", fillcolor="#e5399d"] ;
156 -> 157 ;
158 [label="gini = 0.0\nsamples = 2\nvalue = [0, 0, 0, 0, 2, 0]\nclass = Cerebellum", fillcolor="#8139e5"] ;
156 -> 158 ;
159 [label="InterspikeInterval <= 66.45\ngini = 0.193\nsamples = 29\nvalue = [1, 1, 1, 0, 0, 26]\nclass = Hypothalamus", fillcolor="#e84ea8"] ;
155 -> 159 ;
160 [label="gini = 0.0\nsamples = 1\nvalue = [0, 1, 0, 0, 0, 0]\nclass = Neocortex", fillcolor="#9de539"] ;
159 -> 160 ;
161 [label="ExcitatoryPostsynapticPotential <= 2.581\ngini = 0.135\nsamples = 28\nvalue = [1, 0, 1, 0, 0, 26]\nclass = Hypothalamus", fillcolor="#e748a4"] ;
159 -> 161 ;
162 [label="RestingMembranePotential <= -78.876\ngini = 0.071\nsamples = 27\nvalue = [0, 0, 1, 0, 0, 26]\nclass = Hypothalamus", fillcolor="#e641a1"] ;
161 -> 162 ;
163 [label="gini = 0.0\nsamples = 1\nvalue = [0, 0, 1, 0, 0, 0]\nclass = Amygdala", fillcolor="#39e581"] ;
162 -> 163 ;
164 [label="gini = 0.0\nsamples = 26\nvalue = [0, 0, 0, 0, 0, 26]\nclass = Hypothalamus", fillcolor="#e5399d"] ;
162 -> 164 ;
165 [label="gini = 0.0\nsamples = 1\nvalue = [1, 0, 0, 0, 0, 0]\nclass = Hippocampus", fillcolor="#e58139"] ;
161 -> 165 ;
166 [label="RefractoryPeriod <= 2.761\ngini = 0.441\nsamples = 37\nvalue = [1, 27, 0, 5, 3, 1]\nclass = Neocortex", fillcolor="#bced77"] ;
154 -> 166 ;
167 [label="GlutamateReuptakeTime <= 7.401\ngini = 0.62\nsamples = 10\nvalue = [0, 2, 0, 5, 3, 0]\nclass = Thalamus", fillcolor="#c6e3f8"] ;
166 -> 167 ;
168 [label="IonChannelDiversity <= 81.311\ngini = 0.408\nsamples = 7\nvalue = [0, 2, 0, 5, 0, 0]\nclass = Thalamus", fillcolor="#88c4ef"] ;
167 -> 168 ;
169 [label="gini = 0.0\nsamples = 2\nvalue = [0, 2, 0, 0, 0, 0]\nclass = Neocortex", fillcolor="#9de539"] ;
168 -> 169 ;
170 [label="gini = 0.0\nsamples = 5\nvalue = [0, 0, 0, 5, 0, 0]\nclass = Thalamus", fillcolor="#399de5"] ;
168 -> 170 ;
171 [label="gini = 0.0\nsamples = 3\nvalue = [0, 0, 0, 0, 3, 0]\nclass = Cerebellum", fillcolor="#8139e5"] ;
167 -> 171 ;
172 [label="RestingMembranePotential <= -60.403\ngini = 0.14\nsamples = 27\nvalue = [1, 25, 0, 0, 0, 1]\nclass = Neocortex", fillcolor="#a5e748"] ;
166 -> 172 ;
173 [label="AxonalSignalSpeed <= 108.001\ngini = 0.074\nsamples = 26\nvalue = [1, 25, 0, 0, 0, 0]\nclass = Neocortex", fillcolor="#a1e641"] ;
172 -> 173 ;
174 [label="gini = 0.0\nsamples = 25\nvalue = [0, 25, 0, 0, 0, 0]\nclass = Neocortex", fillcolor="#9de539"] ;
173 -> 174 ;
175 [label="gini = 0.0\nsamples = 1\nvalue = [1, 0, 0, 0, 0, 0]\nclass = Hippocampus", fillcolor="#e58139"] ;
173 -> 175 ;
176 [label="gini = 0.0\nsamples = 1\nvalue = [0, 0, 0, 0, 0, 1]\nclass = Hypothalamus", fillcolor="#e5399d"] ;
172 -> 176 ;
177 [label="MembraneCapacitance <= 5.267\ngini = 0.746\nsamples = 275\nvalue = [9.0, 50.0, 29.0, 48.0, 113.0, 26.0]\nclass = Cerebellum", fillcolor="#dcc8f8"] ;
153 -> 177 ;
178 [label="RestingMembranePotential <= -62.777\ngini = 0.796\nsamples = 135\nvalue = [6, 38, 26, 21, 31, 13]\nclass = Neocortex", fillcolor="#f8fdf2"] ;
177 -> 178 ;
179 [label="RefractoryPeriod <= 2.525\ngini = 0.743\nsamples = 96\nvalue = [5, 37, 1, 18, 22, 13]\nclass = Neocortex", fillcolor="#ebfad7"] ;
178 -> 179 ;
180 [label="NeuralSynchronizationFrequency <= 33.073\ngini = 0.755\nsamples = 59\nvalue = [4, 12, 1, 8, 22, 12]\nclass = Cerebellum", fillcolor="#e4d5f9"] ;
179 -> 180 ;
181 [label="NeuronFiberDensity <= 0.627\ngini = 0.665\nsamples = 23\nvalue = [2, 4, 0, 2, 3, 12]\nclass = Hypothalamus", fillcolor="#f4acd6"] ;
180 -> 181 ;
182 [label="gini = 0.338\nsamples = 15\nvalue = [1, 0, 0, 0, 2, 12]\nclass = Hypothalamus", fillcolor="#eb67b4"] ;
181 -> 182 ;
183 [label="gini = 0.656\nsamples = 8\nvalue = [1, 4, 0, 2, 1, 0]\nclass = Neocortex", fillcolor="#def6bd"] ;
181 -> 183 ;
184 [label="InterspikeInterval <= 809.281\ngini = 0.64\nsamples = 36\nvalue = [2, 8, 1, 6, 19, 0]\nclass = Cerebellum", fillcolor="#ceb1f5"] ;
180 -> 184 ;
185 [label="gini = 0.592\nsamples = 32\nvalue = [2, 4, 1, 6, 19, 0]\nclass = Cerebellum", fillcolor="#c09cf2"] ;
184 -> 185 ;
186 [label="gini = 0.0\nsamples = 4\nvalue = [0, 4, 0, 0, 0, 0]\nclass = Neocortex", fillcolor="#9de539"] ;
184 -> 186 ;
187 [label="InterspikeInterval <= 876.152\ngini = 0.469\nsamples = 37\nvalue = [1, 25, 0, 10, 0, 1]\nclass = Neocortex", fillcolor="#c9f191"] ;
179 -> 187 ;
188 [label="NeurogenesisRate <= 488.384\ngini = 0.35\nsamples = 29\nvalue = [1, 23, 0, 4, 0, 1]\nclass = Neocortex", fillcolor="#b5eb69"] ;
187 -> 188 ;
189 [label="gini = 0.21\nsamples = 26\nvalue = [0, 23, 0, 2, 0, 1]\nclass = Neocortex", fillcolor="#a9e852"] ;
188 -> 189 ;
190 [label="gini = 0.444\nsamples = 3\nvalue = [1, 0, 0, 2, 0, 0]\nclass = Thalamus", fillcolor="#9ccef2"] ;
188 -> 190 ;
191 [label="GlutamateReuptakeTime <= 2.307\ngini = 0.375\nsamples = 8\nvalue = [0, 2, 0, 6, 0, 0]\nclass = Thalamus", fillcolor="#7bbeee"] ;
187 -> 191 ;
192 [label="gini = 0.0\nsamples = 2\nvalue = [0, 2, 0, 0, 0, 0]\nclass = Neocortex", fillcolor="#9de539"] ;
191 -> 192 ;
193 [label="gini = 0.0\nsamples = 6\nvalue = [0, 0, 0, 6, 0, 0]\nclass = Thalamus", fillcolor="#399de5"] ;
191 -> 193 ;
194 [label="RefractoryPeriod <= 2.676\ngini = 0.529\nsamples = 39\nvalue = [1.0, 1.0, 25.0, 3.0, 9.0, 0.0]\nclass = Amygdala", fillcolor="#95f1bc"] ;
178 -> 194 ;
195 [label="AxonalSignalSpeed <= 82.981\ngini = 0.531\nsamples = 14\nvalue = [1, 1, 0, 3, 9, 0]\nclass = Cerebellum", fillcolor="#ba93f1"] ;
194 -> 195 ;
196 [label="BloodVesselProximity <= 16.629\ngini = 0.314\nsamples = 11\nvalue = [1, 0, 0, 1, 9, 0]\nclass = Cerebellum", fillcolor="#9a61ea"] ;
195 -> 196 ;
197 [label="gini = 0.0\nsamples = 1\nvalue = [1, 0, 0, 0, 0, 0]\nclass = Hippocampus", fillcolor="#e58139"] ;
196 -> 197 ;
198 [label="gini = 0.18\nsamples = 10\nvalue = [0, 0, 0, 1, 9, 0]\nclass = Cerebellum", fillcolor="#8f4fe8"] ;
196 -> 198 ;
199 [label="IonChannelDiversity <= 84.5\ngini = 0.444\nsamples = 3\nvalue = [0, 1, 0, 2, 0, 0]\nclass = Thalamus", fillcolor="#9ccef2"] ;
195 -> 199 ;
200 [label="gini = 0.0\nsamples = 1\nvalue = [0, 1, 0, 0, 0, 0]\nclass = Neocortex", fillcolor="#9de539"] ;
199 -> 200 ;
201 [label="gini = 0.0\nsamples = 2\nvalue = [0, 0, 0, 2, 0, 0]\nclass = Thalamus", fillcolor="#399de5"] ;
199 -> 201 ;
202 [label="gini = 0.0\nsamples = 25\nvalue = [0, 0, 25, 0, 0, 0]\nclass = Amygdala", fillcolor="#39e581"] ;
194 -> 202 ;
203 [label="InterspikeInterval <= 793.969\ngini = 0.603\nsamples = 140\nvalue = [3, 12, 3, 27, 82, 13]\nclass = Cerebellum", fillcolor="#c29ff2"] ;
177 -> 203 ;
204 [label="NeuronFiberDensity <= 0.494\ngini = 0.508\nsamples = 107\nvalue = [3, 6, 3, 13, 73, 9]\nclass = Cerebellum", fillcolor="#af81ee"] ;
203 -> 204 ;
205 [label="AxonLength <= 718.211\ngini = 0.727\nsamples = 35\nvalue = [1, 1, 3, 8, 14, 8]\nclass = Cerebellum", fillcolor="#e3d3f9"] ;
204 -> 205 ;
206 [label="NeuralSynchronizationFrequency <= 33.606\ngini = 0.551\nsamples = 15\nvalue = [0, 0, 0, 6, 1, 8]\nclass = Hypothalamus", fillcolor="#f9d3e9"] ;
205 -> 206 ;
207 [label="gini = 0.0\nsamples = 8\nvalue = [0, 0, 0, 0, 0, 8]\nclass = Hypothalamus", fillcolor="#e5399d"] ;
206 -> 207 ;
208 [label="gini = 0.245\nsamples = 7\nvalue = [0, 0, 0, 6, 1, 0]\nclass = Thalamus", fillcolor="#5aade9"] ;
206 -> 208 ;
209 [label="BloodVesselProximity <= 92.998\ngini = 0.54\nsamples = 20\nvalue = [1, 1, 3, 2, 13, 0]\nclass = Cerebellum", fillcolor="#b58bf0"] ;
205 -> 209 ;
210 [label="gini = 0.716\nsamples = 9\nvalue = [0, 1, 3, 2, 3, 0]\nclass = Amygdala", fillcolor="#ffffff"] ;
209 -> 210 ;
211 [label="gini = 0.165\nsamples = 11\nvalue = [1, 0, 0, 0, 10, 0]\nclass = Cerebellum", fillcolor="#8e4de8"] ;
209 -> 211 ;
212 [label="InterspikeInterval <= 748.937\ngini = 0.318\nsamples = 72\nvalue = [2, 5, 0, 5, 59, 1]\nclass = Cerebellum", fillcolor="#995fea"] ;
204 -> 212 ;
213 [label="IonChannelDiversity <= 74.734\ngini = 0.24\nsamples = 61\nvalue = [2, 3, 0, 2, 53, 1]\nclass = Cerebellum", fillcolor="#9254e9"] ;
212 -> 213 ;
214 [label="gini = 0.0\nsamples = 1\nvalue = [0, 1, 0, 0, 0, 0]\nclass = Neocortex", fillcolor="#9de539"] ;
213 -> 214 ;
215 [label="gini = 0.216\nsamples = 60\nvalue = [2, 2, 0, 2, 53, 1]\nclass = Cerebellum", fillcolor="#9051e8"] ;
213 -> 215 ;
216 [label="RestingMembranePotential <= -67.162\ngini = 0.595\nsamples = 11\nvalue = [0, 2, 0, 3, 6, 0]\nclass = Cerebellum", fillcolor="#d0b5f5"] ;
212 -> 216 ;
217 [label="gini = 0.0\nsamples = 5\nvalue = [0, 0, 0, 0, 5, 0]\nclass = Cerebellum", fillcolor="#8139e5"] ;
216 -> 217 ;
218 [label="gini = 0.611\nsamples = 6\nvalue = [0, 2, 0, 3, 1, 0]\nclass = Thalamus", fillcolor="#cee6f8"] ;
216 -> 218 ;
219 [label="RefractoryPeriod <= 2.743\ngini = 0.698\nsamples = 33\nvalue = [0, 6, 0, 14, 9, 4]\nclass = Thalamus", fillcolor="#d6ebfa"] ;
203 -> 219 ;
220 [label="NeuronFiberDensity <= 0.52\ngini = 0.663\nsamples = 13\nvalue = [0, 6, 0, 2, 1, 4]\nclass = Neocortex", fillcolor="#e9f9d3"] ;
219 -> 220 ;
221 [label="NeuralSynchronizationFrequency <= 15.435\ngini = 0.656\nsamples = 8\nvalue = [0, 1, 0, 2, 1, 4]\nclass = Hypothalamus", fillcolor="#f6bdde"] ;
220 -> 221 ;
222 [label="gini = 0.0\nsamples = 4\nvalue = [0, 0, 0, 0, 0, 4]\nclass = Hypothalamus", fillcolor="#e5399d"] ;
221 -> 222 ;
223 [label="gini = 0.625\nsamples = 4\nvalue = [0, 1, 0, 2, 1, 0]\nclass = Thalamus", fillcolor="#bddef6"] ;
221 -> 223 ;
224 [label="gini = 0.0\nsamples = 5\nvalue = [0, 5, 0, 0, 0, 0]\nclass = Neocortex", fillcolor="#9de539"] ;
220 -> 224 ;
225 [label="ActionPotentialRate <= 290.618\ngini = 0.48\nsamples = 20\nvalue = [0, 0, 0, 12, 8, 0]\nclass = Thalamus", fillcolor="#bddef6"] ;
219 -> 225 ;
226 [label="DendriticTreeComplexity <= 2.699\ngini = 0.26\nsamples = 13\nvalue = [0, 0, 0, 11, 2, 0]\nclass = Thalamus", fillcolor="#5dafea"] ;
225 -> 226 ;
227 [label="gini = 0.444\nsamples = 3\nvalue = [0, 0, 0, 1, 2, 0]\nclass = Cerebellum", fillcolor="#c09cf2"] ;
226 -> 227 ;
228 [label="gini = 0.0\nsamples = 10\nvalue = [0, 0, 0, 10, 0, 0]\nclass = Thalamus", fillcolor="#399de5"] ;
226 -> 228 ;
229 [label="CorticalLayerThickness <= 0.674\ngini = 0.245\nsamples = 7\nvalue = [0, 0, 0, 1, 6, 0]\nclass = Cerebellum", fillcolor="#965ae9"] ;
225 -> 229 ;
230 [label="gini = 0.0\nsamples = 1\nvalue = [0, 0, 0, 1, 0, 0]\nclass = Thalamus", fillcolor="#399de5"] ;
229 -> 230 ;
231 [label="gini = 0.0\nsamples = 6\nvalue = [0, 0, 0, 0, 6, 0]\nclass = Cerebellum", fillcolor="#8139e5"] ;
229 -> 231 ;
232 [label="RefractoryPeriod <= 0.695\ngini = 0.37\nsamples = 37\nvalue = [2, 1, 1, 29, 4, 0]\nclass = Thalamus", fillcolor="#69b5eb"] ;
152 -> 232 ;
233 [label="SynapticReleaseSiteCount <= 2217.7\ngini = 0.722\nsamples = 6\nvalue = [2, 1, 1, 0, 2, 0]\nclass = Hippocampus", fillcolor="#ffffff"] ;
232 -> 233 ;
234 [label="gini = 0.0\nsamples = 2\nvalue = [0, 0, 0, 0, 2, 0]\nclass = Cerebellum", fillcolor="#8139e5"] ;
233 -> 234 ;
235 [label="SomaDiameter <= 62.844\ngini = 0.625\nsamples = 4\nvalue = [2, 1, 1, 0, 0, 0]\nclass = Hippocampus", fillcolor="#f6d5bd"] ;
233 -> 235 ;
236 [label="gini = 0.0\nsamples = 2\nvalue = [2, 0, 0, 0, 0, 0]\nclass = Hippocampus", fillcolor="#e58139"] ;
235 -> 236 ;
237 [label="SomaDiameter <= 82.844\ngini = 0.5\nsamples = 2\nvalue = [0, 1, 1, 0, 0, 0]\nclass = Neocortex", fillcolor="#ffffff"] ;
235 -> 237 ;
238 [label="gini = 0.0\nsamples = 1\nvalue = [0, 0, 1, 0, 0, 0]\nclass = Amygdala", fillcolor="#39e581"] ;
237 -> 238 ;
239 [label="gini = 0.0\nsamples = 1\nvalue = [0, 1, 0, 0, 0, 0]\nclass = Neocortex", fillcolor="#9de539"] ;
237 -> 239 ;
240 [label="IonChannelDiversity <= 74.8\ngini = 0.121\nsamples = 31\nvalue = [0, 0, 0, 29, 2, 0]\nclass = Thalamus", fillcolor="#47a4e7"] ;
232 -> 240 ;
241 [label="gini = 0.0\nsamples = 2\nvalue = [0, 0, 0, 0, 2, 0]\nclass = Cerebellum", fillcolor="#8139e5"] ;
240 -> 241 ;
242 [label="gini = 0.0\nsamples = 29\nvalue = [0, 0, 0, 29, 0, 0]\nclass = Thalamus", fillcolor="#399de5"] ;
240 -> 242 ;
}